{"voxel_size": 0.0024747750000000002, "block_size": 30, "grid_width": 561, "grid_height": 581, "grid_depth": 1000, "atlas_width": 2048, "atlas_height": 2048, "atlas_depth": 32, "num_slices": 8, "min_x": -0.6981687500000002, "min_y": -0.4135249999999999, "min_z": -1.232075, "atlas_blocks_x": 64, "atlas_blocks_y": 64, "atlas_blocks_z": 1, "input_height": 800.0, "input_width": 800.0, "input_focal": 1111.1110311937682, "worldspace_T_opengl": [[-1.0, 0.0, 0.0, 0.0], [0.0, 0.0, 1.0, 0.0], [0.0, 1.0, 0.0, 0.0], [0.0, 0.0, 0.0, 1.0]], "ndc": false, "0_weights": [[-0.3840005695819855, 0.11384168267250061, -0.42484015226364136, -0.33323806524276733, -0.2655886113643646, 0.19981630146503448, 0.02752208150923252, -0.04113270342350006, -0.042638715356588364, -0.20246383547782898, -0.13566827774047852, -0.1879088431596756, -0.22569520771503448, -0.12734146416187286, -0.3384900987148285, -0.20352284610271454], [0.2610279619693756, 0.2461874783039093, 0.18311181664466858, 0.039647411555051804, -0.2491140216588974, 0.0498574860394001, -0.3574386537075043, 0.08039118349552155, -0.3256710171699524, -0.1603986918926239, -0.25562784075737, -0.08717600256204605, -0.033409010618925095, -0.04178192466497421, 0.07615122944116592, 0.17617769539356232], [-0.08449316024780273, 0.037208955734968185, 0.30463457107543945, 0.11667490750551224, -0.3867092728614807, 0.2752481698989868, -0.15261952579021454, 0.030098043382167816, 0.28996747732162476, -0.2748715579509735, -0.00921389739960432, -0.06623447686433792, -0.24108117818832397, 0.12583233416080475, -0.4148949086666107, -0.38094431161880493], [-0.15571925044059753, -0.08909498155117035, -0.3914409875869751, 0.008883741684257984, -0.2528664171695709, -0.20538030564785004, -0.013322075828909874, 0.09930460155010223, 0.4684421718120575, -0.19951653480529785, -0.3437598943710327, -0.21233566105365753, -0.054749853909015656, -0.08947274088859558, -0.16347122192382812, -0.25641483068466187], [-0.10240244120359421, 0.18330501019954681, -0.13244086503982544, 0.2790076434612274, 0.17943036556243896, 0.4926638901233673, 0.2060660868883133, 0.44169214367866516, 0.2676926553249359, -0.2656386196613312, -0.07653238624334335, 0.060738563537597656, 0.049080051481723785, -0.08300861716270447, -0.03471275791525841, 0.22496724128723145], [-0.1770477592945099, 0.013046703301370144, -0.2089049369096756, -0.30721065402030945, 0.10284142196178436, -0.2597845792770386, 0.3951777219772339, -0.2630487382411957, -0.26499637961387634, -0.22002948820590973, 0.1278216391801834, 0.3466807007789612, -0.10814274102449417, -0.04554951563477516, -0.38612276315689087, -0.07268556952476501], [-0.32288599014282227, 0.1625511795282364, -0.34365299344062805, -0.03450562804937363, -0.21252170205116272, 0.1794307380914688, 0.5040395855903625, -0.2999849021434784, 0.17353661358356476, -0.08829513937234879, -0.1067432388663292, 0.155084490776062, -0.11363084614276886, 0.31679603457450867, -0.006888883654028177, -0.22634024918079376], [-0.32546529173851013, -0.22868601977825165, -0.09199781715869904, -0.05444313958287239, -0.1311722695827484, 0.4012017250061035, -0.23715093731880188, 0.11790449917316437, 0.2388317734003067, 0.063651442527771, 0.3435394763946533, -0.3301292359828949, 0.18493494391441345, 0.24320626258850098, -0.14059555530548096, -0.07352166622877121], [0.14739391207695007, 0.35577505826950073, -0.20964711904525757, -0.06750889122486115, -0.3157663941383362, -0.20066668093204498, -0.022783813998103142, -0.12786105275154114, 0.27595633268356323, -0.10249099880456924, -0.3421750068664551, 0.37229016423225403, 0.0033495549578219652, -0.07359713315963745, -0.11190921068191528, 0.0339549221098423], [0.07478178292512894, 0.13219404220581055, 0.18805623054504395, 0.14311204850673676, -0.4436149001121521, -0.12866653501987457, -0.17064298689365387, 0.08690360933542252, -0.15650509297847748, 0.24842685461044312, 0.1817331463098526, 0.2696394920349121, 0.060265570878982544, 0.3642803728580475, 0.02287769317626953, 0.04033626243472099], [-0.008606674149632454, 0.10294978320598602, -0.2416786402463913, -0.354166179895401, 0.1921917200088501, 0.13196735084056854, 0.23459412157535553, -0.09308920055627823, -0.04915736988186836, -0.13939687609672546, 0.17233924567699432, 0.014393933117389679, -0.1729765087366104, -0.009139916859567165, 0.0019152460154145956, -0.08387257903814316], [-0.019715500995516777, -0.018980925902724266, 0.2264699935913086, -0.22984032332897186, -0.140416219830513, 0.23349851369857788, 0.11657378077507019, 0.2893051207065582, -0.08605676144361496, 0.22263923287391663, -0.11866714805364609, 0.14047545194625854, 0.4506434202194214, 0.09878887236118317, 0.33408254384994507, 0.21230730414390564], [0.12673234939575195, -0.12158451229333878, 0.01751447655260563, 0.0598103404045105, -0.15315558016300201, 0.3088015615940094, 0.005654728040099144, -0.2197245955467224, -0.26496198773384094, 0.4053248167037964, 0.058997366577386856, 0.3903622329235077, -0.07806852459907532, 0.044312261044979095, 0.10513682663440704, 0.03872328996658325], [0.12684914469718933, -0.14535732567310333, -0.16106252372264862, 0.05708690360188484, -0.22602392733097076, 0.18489648401737213, -0.018670976161956787, 0.14747290313243866, 0.11526001989841461, -0.08982092142105103, -0.1442430466413498, 0.5697335004806519, -0.13158176839351654, -0.019944503903388977, 0.00576431630179286, 0.028428472578525543], [0.03447422757744789, -0.026861203834414482, 0.02177654393017292, 0.16692379117012024, -0.024868346750736237, 0.025389516726136208, 0.07586236298084259, 0.14215092360973358, 0.03433730825781822, -0.09820549190044403, 0.1351926326751709, 0.31827425956726074, -0.08901973068714142, -0.028704127296805382, -0.2603910267353058, 0.018634965643286705], [-0.03876012563705444, -0.45609861612319946, -0.34309154748916626, -0.36044129729270935, 0.35623598098754883, 0.05548391863703728, -0.13056164979934692, 0.2078828066587448, 0.4338492453098297, 0.3064967095851898, -0.20492999255657196, 0.047731053084135056, 0.32577621936798096, -0.3332975506782532, 0.15900306403636932, 0.1326618194580078], [0.13708269596099854, -0.015596550889313221, -0.2771162986755371, 0.2601970434188843, 0.10307655483484268, 0.06765317916870117, 0.20618318021297455, 0.1823839396238327, -0.08947061002254486, 0.3533133566379547, 0.28715410828590393, -0.280253529548645, -0.22114627063274384, 0.3189566731452942, 0.27428340911865234, -0.3622192144393921], [-0.11187727749347687, -0.033586286008358, -0.11109590530395508, 0.17226852476596832, 0.3723697066307068, 0.21035566926002502, 0.3076358735561371, 0.07193988561630249, 0.07362443208694458, 0.41073694825172424, 0.40829363465309143, -0.07120749354362488, 0.16580159962177277, -0.03840720281004906, -0.091277115046978, 0.013439200818538666], [0.31443867087364197, 0.2226167917251587, 0.022678833454847336, 0.11495036631822586, -0.09230433404445648, 0.18801800906658173, 0.1150294616818428, 0.3331563472747803, 0.272543340921402, -0.0383455790579319, -0.029430313035845757, -0.04721305891871452, 0.1534615159034729, -0.4865366816520691, 0.4138278663158417, -0.1265752762556076], [-0.10416212677955627, 0.10687392950057983, -0.30457478761672974, 0.4626408815383911, -0.025039218366146088, 0.11699569225311279, -0.3625378906726837, -0.038380902260541916, 0.0713796317577362, -0.06532972306013107, 0.03810810670256615, -0.4729386568069458, 0.02473907358944416, 0.3622385263442993, 0.20164933800697327, 0.2748159170150757], [0.13762864470481873, 0.08226517587900162, 0.12214510887861252, 0.08001387864351273, 0.3042777180671692, -0.11767768114805222, 0.15530695021152496, -0.17179280519485474, 0.28861284255981445, 0.275791198015213, 0.1719033122062683, -0.5248778462409973, 0.1316274106502533, 0.17485199868679047, -0.040719419717788696, -0.4257889986038208], [0.19717152416706085, -0.0878298208117485, -0.2609943151473999, -0.05145929753780365, -0.06455815583467484, 0.27297472953796387, -0.13715267181396484, -0.0232744961977005, -0.23416219651699066, -0.34529080986976624, -0.39756661653518677, 0.37277111411094666, 0.12917600572109222, -0.2034464031457901, 0.3908970355987549, 0.10989771038293839], [-0.019610241055488586, -0.15795034170150757, -0.023908954113721848, -0.0680759996175766, -0.02894432097673416, -0.09910296648740768, 0.12476326525211334, -0.18272125720977783, 0.062248703092336655, -0.15792463719844818, 0.0571608692407608, -0.10893162339925766, 0.1334220916032791, -0.09754041582345963, -0.11090531200170517, -0.09143060445785522], [-0.3085866868495941, 0.13400408625602722, 0.34244969487190247, -0.11178050190210342, 0.09509290754795074, -0.0805029645562172, 0.11041581630706787, -0.2849631607532501, 0.1679283231496811, 0.14071406424045563, -0.09551366418600082, 0.12046340107917786, 0.21052511036396027, -0.12321216613054276, 0.23862460255622864, 0.06397959589958191], [0.14787064492702484, -0.1334240436553955, -0.0005288547254167497, 0.07058603316545486, 0.35501226782798767, -0.015176122076809406, 0.016766952350735664, 0.02994287945330143, -0.28328919410705566, -0.12875959277153015, 0.10299327224493027, -0.48772501945495605, 0.10305102169513702, 0.03183271735906601, -0.00794393103569746, 0.1818002462387085], [-0.06740329414606094, -0.17770056426525116, -0.10119803249835968, 0.020513316616415977, 0.3822530508041382, 0.2490905076265335, 0.08538372069597244, 0.030898086726665497, -0.20050272345542908, -0.08976800739765167, 0.08324850350618362, 0.3512064814567566, -0.011883966624736786, -0.11713209003210068, -0.1615011990070343, -0.08221060782670975], [0.012550316751003265, -0.13588771224021912, -0.03724665567278862, -0.48046642541885376, 0.04472554475069046, 0.080793097615242, 0.06940586864948273, 0.05797082558274269, -0.2909042239189148, 0.05023058503866196, -0.1176033690571785, 0.32720550894737244, -0.09820185601711273, -0.044341545552015305, 0.05634419620037079, -0.05685991048812866], [0.48552337288856506, -0.23439238965511322, 0.19354210793972015, -0.24141159653663635, -0.5286487340927124, -0.36748507618904114, 0.536183774471283, 0.0952446237206459, 0.17953220009803772, 0.1210416927933693, 0.17365628480911255, -0.1749887764453888, -0.024655170738697052, 0.11275923252105713, -0.5674592852592468, 0.00637391023337841], [0.3179868459701538, 0.10214101523160934, 0.22627027332782745, -0.1843477040529251, -0.7408517003059387, -0.4200912117958069, 0.45429009199142456, 0.1698780208826065, -0.0939691811800003, -0.3039686679840088, -0.10885582119226456, 0.20688891410827637, -0.0791802778840065, -0.5202990770339966, -0.6679538488388062, 0.2653460204601288], [0.6293635368347168, -0.06116635352373123, -0.44309428334236145, 0.03188895061612129, -0.65123450756073, 0.038717810064554214, -0.11959546059370041, 0.14661166071891785, 0.4299568831920624, 0.046265989542007446, 0.3072648048400879, 0.29357588291168213, 0.48902225494384766, -0.5074416399002075, 0.5150527954101562, -0.0755348801612854], [-0.5308440923690796, -0.2153274416923523, -0.4533619284629822, -0.04709998145699501, 0.3913167119026184, -0.06766968965530396, -0.5182244777679443, -0.44946181774139404, -0.3161272406578064, 0.18237097561359406, 0.12751929461956024, -0.4024175703525543, -0.3725031912326813, 0.2174244225025177, 0.374683678150177, 0.5274017453193665], [-0.14210116863250732, -0.32185032963752747, 0.4182054400444031, 0.04145321249961853, -0.3452323377132416, -0.44611895084381104, -0.19529210031032562, -0.7011381983757019, 0.5034341812133789, 0.24649043381214142, 0.38331538438796997, 0.219082772731781, 0.6437912583351135, 0.21917681396007538, -0.905256986618042, 0.32604530453681946], [-0.13961350917816162, -0.3706866204738617, 0.8254035711288452, 0.23289218544960022, 0.293235182762146, -0.4028000235557556, 0.03416643291711807, 0.6285375356674194, 0.7478370070457458, -0.4903099834918976, 0.3830901086330414, -0.5160501599311829, -0.27750352025032043, 0.6617323756217957, 0.004924112465232611, -0.53483647108078], [-0.3522559702396393, 0.11021802574396133, -0.1262095868587494, 0.025962116196751595, 0.007249937858432531, -0.1937156468629837, 0.3398011028766632, -0.3277500867843628, 0.06557173281908035, 0.05963636934757233, 0.21448351442813873, -0.3565465807914734, -0.436014324426651, 0.21429668366909027, -0.0554099939763546, 0.22003069519996643]], "1_weights": [[0.10215532034635544, -0.19681546092033386, -0.257600337266922, 0.1514231115579605, 0.05060458555817604, 0.42180225253105164, -0.6415247321128845, -0.15842413902282715, 0.4622555375099182, 0.07507641613483429, -0.5759526491165161, 0.2868199646472931, -0.42786797881126404, 0.0705086812376976, -0.15335239470005035, 0.18118993937969208], [-0.04957589507102966, 0.09708951413631439, -0.4146313965320587, -0.008378538303077221, 0.2961481809616089, -0.15375834703445435, -0.2683250606060028, -0.013623470440506935, -0.33826202154159546, -0.0167696513235569, -0.009807339869439602, 0.0034602934028953314, 0.1448485106229782, -0.24110731482505798, -0.34600111842155457, -0.02005978301167488], [-0.4854915738105774, 0.30652526021003723, -0.6890418529510498, 0.01330228429287672, 0.38426098227500916, 0.012280221097171307, 0.8293976187705994, -0.26370713114738464, 0.059458695352077484, -0.08916646987199783, 0.2785208821296692, 0.05394122004508972, 0.11901576071977615, 0.20520006120204926, -0.011565161868929863, -0.12165020406246185], [0.09770380705595016, -0.030346015468239784, 0.06868873536586761, -0.17983809113502502, -0.10590261220932007, 0.10957249253988266, 0.1830178201198578, 0.2199772596359253, 0.022077204659581184, 0.46287956833839417, 0.3797079920768738, -0.2008550763130188, 0.3353864252567291, 0.3302178680896759, -0.38205572962760925, 0.02459707483649254], [0.26051563024520874, 0.11408023536205292, -0.043401651084423065, 0.25539061427116394, 0.018506165593862534, 0.4631512761116028, -0.6950679421424866, -0.02215603180229664, -0.6284384727478027, 0.2305138260126114, -0.010309693403542042, 0.49214082956314087, 0.12315342575311661, -0.3223384618759155, -0.005363598465919495, 0.12866748869419098], [-0.15169958770275116, 0.04984810948371887, 0.19681327044963837, -0.3115893304347992, 0.35681217908859253, 0.04672582074999809, -0.7672661542892456, 0.21260389685630798, -0.05440868064761162, 0.4568450450897217, -0.012476586736738682, 0.25702300667762756, -0.10275977104902267, -0.16664965450763702, -0.11659247428178787, 0.2580784559249878], [0.30039694905281067, -0.22995713353157043, -0.07764150947332382, -0.4426177442073822, -0.48122861981391907, 0.3923810124397278, 0.00022088727564550936, 0.4359179139137268, 0.44660499691963196, 0.18877357244491577, 0.2961203157901764, 0.24133101105690002, -0.3448299467563629, -0.13167314231395721, -0.029296334832906723, 0.4415803551673889], [0.45241019129753113, -0.1420784741640091, 0.441814661026001, -0.1928558051586151, 0.5077170133590698, 0.2642098069190979, -1.1914535760879517, 0.7263284921646118, 0.010609684512019157, 0.07424653321504593, 0.19155114889144897, 0.26557475328445435, -0.24533379077911377, 0.4367028772830963, 0.2751877009868622, 0.17049816250801086], [0.18157760798931122, -0.24834442138671875, -0.1515561193227768, -0.06666826456785202, 0.022307105362415314, 0.45480582118034363, -0.7051243782043457, 0.49355971813201904, -0.049669358879327774, -0.020124560222029686, 0.40564432740211487, 0.14110785722732544, -0.13049733638763428, 0.2834530770778656, -0.06478168815374374, -0.0549982488155365], [0.2192324995994568, -0.006336275488138199, -0.19889329373836517, 0.3012417256832123, -0.3140793442726135, -0.21539556980133057, 0.5205088257789612, 0.15721003711223602, 0.09318713843822479, 0.2277725785970688, -0.296742707490921, 0.3628177344799042, -0.3747182786464691, 0.14935144782066345, 0.28102487325668335, 0.1717544049024582], [0.3928963541984558, -0.3807207942008972, 0.24812735617160797, 0.02623138204216957, 0.2893476188182831, 0.19391046464443207, -0.16747747361660004, 0.40046077966690063, 0.31040701270103455, -0.0825074166059494, 0.4191407561302185, 0.02790721505880356, -0.2076261192560196, 0.26366838812828064, 0.2556954324245453, -0.033104151487350464], [-0.4326472878456116, 0.15276752412319183, -1.322911262512207, 0.6638097763061523, 0.2243209183216095, -0.45453959703445435, 0.8985623717308044, -0.8915613889694214, -0.01124212983995676, -0.67168128490448, -1.7112348079681396, -0.5641613602638245, 0.1251278668642044, -0.27341875433921814, -0.716216504573822, -0.3730621933937073], [0.09503806382417679, -0.28570693731307983, -0.12177640199661255, -0.10070313513278961, -0.26918408274650574, 0.41663646697998047, -1.481534481048584, 0.060526441782712936, 0.4544844925403595, 0.2733151912689209, -0.30098456144332886, 0.26600682735443115, -0.30996063351631165, 0.17031019926071167, -0.06835292279720306, 0.2417522370815277], [0.0945940911769867, 0.015523716807365417, -0.14794881641864777, 0.141071155667305, 0.022073769941926003, -0.0817541852593422, -0.04644471034407616, 0.021242285147309303, -0.26036718487739563, 0.5617557764053345, -0.2376246303319931, -0.0194093007594347, -0.2711818814277649, 0.44135814905166626, -0.13970918953418732, 0.25401416420936584], [0.2105409950017929, -0.35339027643203735, 0.36709263920783997, 0.19143016636371613, -0.5484786629676819, 0.5118027925491333, 0.3732351064682007, 0.06803063303232193, -0.2349010407924652, -0.04372395575046539, 0.3647957146167755, 0.4221058189868927, -0.06432171165943146, -0.3426002264022827, -0.0632781907916069, 0.1067051813006401], [0.10479360818862915, 0.1956634223461151, -0.18137826025485992, 0.0921935886144638, 0.06262878328561783, -0.359094500541687, 0.06346487253904343, -0.03542089834809303, -0.15911993384361267, 0.04801729694008827, 0.2771567702293396, -0.21528516709804535, -0.21677175164222717, -0.25243812799453735, 0.1358889937400818, -0.3666221797466278]], "2_weights": [[-0.6163578033447266, 0.18122270703315735, 0.06038280203938484], [0.4865153729915619, 0.11750436574220657, 0.17916685342788696], [0.17948602139949799, 0.23330818116664886, 0.5293968319892883], [0.6355339288711548, -0.022653842344880104, 0.512778103351593], [0.5379965305328369, 0.49878227710723877, 0.5290465354919434], [-0.15877526998519897, -0.7541645765304565, -0.5835942029953003], [1.224135160446167, 1.1732438802719116, 1.1465193033218384], [-0.16221317648887634, -0.6942967176437378, -0.5983924269676208], [-0.6825544834136963, -0.5815462470054626, -0.15279191732406616], [0.10159663110971451, -0.3080061376094818, -0.4866175651550293], [0.5671550035476685, 0.7534270882606506, 0.8781163096427917], [-0.7236015796661377, -0.04798160493373871, -0.5383511185646057], [-0.07928628474473953, -0.27927860617637634, 0.28466159105300903], [-0.5674732327461243, -0.3068571388721466, -0.5523895025253296], [0.48297637701034546, -0.18670186400413513, -0.39232882857322693], [-0.5400334596633911, -0.5931079983711243, 0.37029436230659485]], "0_bias": [0.06361543387174606, -0.1835058182477951, 0.024232933297753334, -0.005283581558614969, 0.11955481022596359, -0.05986247584223747, 0.01913226768374443, 0.04621554911136627, 0.13025978207588196, 0.14949439465999603, 0.12791405618190765, -0.18555545806884766, 0.10155531764030457, -0.006015157792717218, 0.1402674913406372, -0.061376046389341354], "1_bias": [0.07526087015867233, -0.06337237358093262, 0.0747019350528717, -0.0455673448741436, -0.013440302573144436, 0.14205802977085114, 0.06728380918502808, 0.09765542298555374, 0.03508930280804634, 0.0632929652929306, 0.10428214073181152, 0.1836005300283432, -0.014359294436872005, 0.0883161872625351, 0.11218422651290894, -0.03844357281923294], "2_bias": [-0.11034119874238968, 0.01857060380280018, -0.18034592270851135], "format": "png"}